digraph Tree {
node [shape=box, style="filled, rounded", color="black", fontname=helvetica] ;
edge [fontname=helvetica] ;
0 [label="petal width (cm) <= 0.8\ngini = 0.66\nsamples = 91\nvalue = [44, 51, 55]\nclass = virginica", fillcolor="#faf7fe"] ;
1 [label="gini = 0.0\nsamples = 29\nvalue = [44, 0, 0]\nclass = setosa", fillcolor="#e58139"] ;
0 -> 1 [labeldistance=2.5, labelangle=45, headlabel="True"] ;
2 [label="sepal length (cm) <= 6.25\ngini = 0.5\nsamples = 62\nvalue = [0, 51, 55]\nclass = virginica", fillcolor="#f6f1fd"] ;
0 -> 2 [labeldistance=2.5, labelangle=-45, headlabel="False"] ;
3 [label="petal length (cm) <= 4.85\ngini = 0.41\nsamples = 33\nvalue = [0, 39, 16]\nclass = versicolor", fillcolor="#8af0b5"] ;
2 -> 3 ;
4 [label="petal width (cm) <= 1.65\ngini = 0.18\nsamples = 24\nvalue = [0, 37, 4]\nclass = versicolor", fillcolor="#4ee88f"] ;
3 -> 4 ;
5 [label="gini = 0.0\nsamples = 21\nvalue = [0, 34, 0]\nclass = versicolor", fillcolor="#39e581"] ;
4 -> 5 ;
6 [label="sepal width (cm) <= 3.1\ngini = 0.49\nsamples = 3\nvalue = [0, 3, 4]\nclass = virginica", fillcolor="#e0cef8"] ;
4 -> 6 ;
7 [label="gini = 0.0\nsamples = 2\nvalue = [0, 0, 4]\nclass = virginica", fillcolor="#8139e5"] ;
6 -> 7 ;
8 [label="gini = 0.0\nsamples = 1\nvalue = [0, 3, 0]\nclass = versicolor", fillcolor="#39e581"] ;
6 -> 8 ;
9 [label="petal width (cm) <= 1.7\ngini = 0.24\nsamples = 9\nvalue = [0, 2, 12]\nclass = virginica", fillcolor="#965ae9"] ;
3 -> 9 ;
10 [label="petal width (cm) <= 1.5\ngini = 0.48\nsamples = 2\nvalue = [0, 2, 3]\nclass = virginica", fillcolor="#d5bdf6"] ;
9 -> 10 ;
11 [label="gini = 0.0\nsamples = 1\nvalue = [0, 0, 3]\nclass = virginica", fillcolor="#8139e5"] ;
10 -> 11 ;
12 [label="gini = 0.0\nsamples = 1\nvalue = [0, 2, 0]\nclass = versicolor", fillcolor="#39e581"] ;
10 -> 12 ;
13 [label="gini = 0.0\nsamples = 7\nvalue = [0, 0, 9]\nclass = virginica", fillcolor="#8139e5"] ;
9 -> 13 ;
14 [label="petal length (cm) <= 4.8\ngini = 0.36\nsamples = 29\nvalue = [0, 12, 39]\nclass = virginica", fillcolor="#a876ed"] ;
2 -> 14 ;
15 [label="gini = 0.0\nsamples = 6\nvalue = [0, 11, 0]\nclass = versicolor", fillcolor="#39e581"] ;
14 -> 15 ;
16 [label="petal width (cm) <= 1.65\ngini = 0.05\nsamples = 23\nvalue = [0, 1, 39]\nclass = virginica", fillcolor="#843ee6"] ;
14 -> 16 ;
17 [label="petal length (cm) <= 5.0\ngini = 0.44\nsamples = 2\nvalue = [0, 1, 2]\nclass = virginica", fillcolor="#c09cf2"] ;
16 -> 17 ;
18 [label="gini = 0.0\nsamples = 1\nvalue = [0, 1, 0]\nclass = versicolor", fillcolor="#39e581"] ;
17 -> 18 ;
19 [label="gini = 0.0\nsamples = 1\nvalue = [0, 0, 2]\nclass = virginica", fillcolor="#8139e5"] ;
17 -> 19 ;
20 [label="gini = 0.0\nsamples = 21\nvalue = [0, 0, 37]\nclass = virginica", fillcolor="#8139e5"] ;
16 -> 20 ;
}